<?xml version="1.0"?>
<opencv_storage>
<!-- Created using Computer Vision System Toolbox(tm) for MATLAB(R) -->
<!-- Version 8.3.0.532 (R2014a) -->
<!-- Compatible with OpenCV 2.4 -->
<cascade>
  <stageType>BOOST</stageType>
  <featureType>LBP</featureType>
  <height>32</height>
  <width>41</width>
  <stageParams>
    <boostType>GAB</boostType>
    <minHitRate>9.9500000476837158e-01</minHitRate>
    <maxFalseAlarm>1.0000000149011612e-01</maxFalseAlarm>
    <weightTrimRate>9.4999999999999996e-01</weightTrimRate>
    <maxDepth>1</maxDepth>
    <maxWeakCount>100</maxWeakCount></stageParams>
  <featureParams>
    <maxCatCount>256</maxCatCount>
    <featSize>1</featSize></featureParams>
  <stageNum>7</stageNum>
  <stages>
    <!-- stage 0 -->
    <_>
      <maxWeakCount>5</maxWeakCount>
      <stageThreshold>-1.2549036741256714e+00</stageThreshold>
      <weakClassifiers>
        <_>
          <internalNodes>
            0 -1 9 -33793 -136324785 -255591473 -10822338 1934580807
            2133807971 -70288513 -2130049</internalNodes>
          <leafValues>
            -7.8017663955688477e-01 6.2526315450668335e-01</leafValues></_>
        <_>
          <internalNodes>
            0 -1 20 -12845073 -585248259 -627682339 -8537123 -614466674
            -1614050661 -1144471618 4504223</internalNodes>
          <leafValues>
            -8.6080056428909302e-01 5.5942755937576294e-01</leafValues></_>
        <_>
          <internalNodes>
            0 -1 2 -19994385 -35938593 -217001241 2112609055 -926880965
            -96468917 -635088027 -143426697</internalNodes>
          <leafValues>
            -7.4042207002639771e-01 6.0942238569259644e-01</leafValues></_>
        <_>
          <internalNodes>
            0 -1 22 -547422220 1070709714 -1093403171 2147202047
            -77857537 2079836291 -1137708865 276433146</internalNodes>
          <leafValues>
            -9.1224890947341919e-01 4.9737378954887390e-01</leafValues></_>
        <_>
          <internalNodes>
            0 -1 10 2111773935 -176205473 -1072695078 -11284021
            987855631 -217512873 -123543569 2131956066</internalNodes>
          <leafValues>
            -7.9110634326934814e-01 5.6165176630020142e-01</leafValues></_></weakClassifiers></_>
    <!-- stage 1 -->
    <_>
      <maxWeakCount>7</maxWeakCount>
      <stageThreshold>-2.4199344217777252e-01</stageThreshold>
      <weakClassifiers>
        <_>
          <internalNodes>
            0 -1 53 -2097219 719180563 1347506533 -1801846841 -266346867
            -787251175 1410071461 -923279401</internalNodes>
          <leafValues>
            -7.9049676656723022e-01 4.1197183728218079e-01</leafValues></_>
        <_>
          <internalNodes>
            0 -1 5 -90243458 -136842163 2038820239 -36964961 -104198177
            1073667534 -216022305 -143540361</internalNodes>
          <leafValues>
            -6.9260841608047485e-01 5.3653776645660400e-01</leafValues></_>
        <_>
          <internalNodes>
            0 -1 3 -8716290 2006866639 -494350977 -116425761 -209684417
            -98680693 1209302903 -680036489</internalNodes>
          <leafValues>
            -7.7111262083053589e-01 5.2331513166427612e-01</leafValues></_>
        <_>
          <internalNodes>
            0 -1 25 -355213490 -137129737 412000095 935562686 -22291630
            -1975788810 -1111692289 -594150417</internalNodes>
          <leafValues>
            -6.4813786745071411e-01 5.7802993059158325e-01</leafValues></_>
        <_>
          <internalNodes>
            0 -1 21 -104272131 -193698707 -939271549 743097103
            -1140850945 -1077376619 313187243 363392955</internalNodes>
          <leafValues>
            -7.6461601257324219e-01 5.1691156625747681e-01</leafValues></_>
        <_>
          <internalNodes>
            0 -1 30 1067408895 1029437266 -1320178993 -44838438
            733501515 -619507701 -602698501 1874820714</internalNodes>
          <leafValues>
            -7.4424511194229126e-01 5.0724041461944580e-01</leafValues></_>
        <_>
          <internalNodes>
            0 -1 15 -501560145 -1555562273 -914352195 1515505054
            2046865151 2043251855 70756959 1116354343</internalNodes>
          <leafValues>
            -7.4004477262496948e-01 5.0663483142852783e-01</leafValues></_></weakClassifiers></_>
    <!-- stage 2 -->
    <_>
      <maxWeakCount>8</maxWeakCount>
      <stageThreshold>-1.0270123183727264e-01</stageThreshold>
      <weakClassifiers>
        <_>
          <internalNodes>
            0 -1 17 -435329 -38439457 -134096417 -3026465 -52601985
            -246259532 -3997697 -8193537</internalNodes>
          <leafValues>
            -6.4850133657455444e-01 5.4961830377578735e-01</leafValues></_>
        <_>
          <internalNodes>
            0 -1 40 -2097432 -1651012771 -486351379 -373844011 -8667143
            -1080059134 -69207073 751631219</internalNodes>
          <leafValues>
            -7.8832632303237915e-01 3.9742833375930786e-01</leafValues></_>
        <_>
          <internalNodes>
            0 -1 28 1056659967 1066129699 -543825963 -90623593 415775315
            -72695185 2021976180 -1348507601</internalNodes>
          <leafValues>
            -6.7037135362625122e-01 4.7264555096626282e-01</leafValues></_>
        <_>
          <internalNodes>
            0 -1 14 -1344349372 -1177118343 156949791 -6534761
            -1206255909 -54608081 -68600001 1961950039</internalNodes>
          <leafValues>
            -7.7679049968719482e-01 4.0146815776824951e-01</leafValues></_>
        <_>
          <internalNodes>
            0 -1 32 203030489 2006962293 -74482465 1004283989 1503141045
            -20051 1263230654 -286463430</internalNodes>
          <leafValues>
            -6.3573932647705078e-01 5.0346535444259644e-01</leafValues></_>
        <_>
          <internalNodes>
            0 -1 55 -1210713037 -2070698594 -1584332017 614093133
            -1419525380 -2137030317 -1144378532 282786807</internalNodes>
          <leafValues>
            -7.2512471675872803e-01 4.6443793177604675e-01</leafValues></_>
        <_>
          <internalNodes>
            0 -1 1 -1327528193 -715597681 -1677716257 -143528305
            -484239189 -708405114 939620325 1416626999</internalNodes>
          <leafValues>
            -9.2415112257003784e-01 3.4289279580116272e-01</leafValues></_>
        <_>
          <internalNodes>
            0 -1 27 1895655373 2006942847 1644252694 1482571846
            -1176613346 -1119221654 -544739345 1041388883</internalNodes>
          <leafValues>
            -7.6949411630630493e-01 4.0274837613105774e-01</leafValues></_></weakClassifiers></_>
    <!-- stage 3 -->
    <_>
      <maxWeakCount>9</maxWeakCount>
      <stageThreshold>-5.6132233142852783e-01</stageThreshold>
      <weakClassifiers>
        <_>
          <internalNodes>
            0 -1 45 -1887699489 1039004100 558489813 -1075981871
            455833599 -1178485845 49266395 -1610612739</internalNodes>
          <leafValues>
            -7.3664724826812744e-01 3.6189606785774231e-01</leafValues></_>
        <_>
          <internalNodes>
            0 -1 46 -73431136 -1869901409 1347010992 -55317549
            -2130583127 -1740676965 185586619 -37760577</internalNodes>
          <leafValues>
            -6.5838670730590820e-01 4.7024253010749817e-01</leafValues></_>
        <_>
          <internalNodes>
            0 -1 47 -1081355536 -1659909487 -1253845035 494133396
            126543614 -1552774734 1116333532 167767295</internalNodes>
          <leafValues>
            -7.4567121267318726e-01 3.9494892954826355e-01</leafValues></_>
        <_>
          <internalNodes>
            0 -1 0 -417206930 -7122816 318808408 522277132 -644091050
            -121929567 -1023210566 -135804157</internalNodes>
          <leafValues>
            -7.1746987104415894e-01 4.3542271852493286e-01</leafValues></_>
        <_>
          <internalNodes>
            0 -1 50 1970781856 1091879938 -1610493037 85952656
            -824256376 -1568534513 -1299281773 -1929910997</internalNodes>
          <leafValues>
            -6.6026288270950317e-01 4.3994048237800598e-01</leafValues></_>
        <_>
          <internalNodes>
            0 -1 8 -623387233 -897461561 1526842249 -839197741
            -1842919372 -358543221 -675071461 -278431373</internalNodes>
          <leafValues>
            -5.2339738607406616e-01 5.5994629859924316e-01</leafValues></_>
        <_>
          <internalNodes>
            0 -1 26 -950996002 -903429806 16847106 452795293 143247850
            -1886992232 38092905 1006499834</internalNodes>
          <leafValues>
            -6.9772106409072876e-01 4.4148150086402893e-01</leafValues></_>
        <_>
          <internalNodes>
            0 -1 41 1028166256 -610645631 -1065254627 2111639754
            -1814722051 -1282633639 -58615063 -1090778400</internalNodes>
          <leafValues>
            -7.1822714805603027e-01 4.0542262792587280e-01</leafValues></_>
        <_>
          <internalNodes>
            0 -1 4 -506269998 -786972461 -1861696853 -584400501
            -501546785 1888157841 -896765720 2103794047</internalNodes>
          <leafValues>
            -6.7856746912002563e-01 4.8030951619148254e-01</leafValues></_></weakClassifiers></_>
    <!-- stage 4 -->
    <_>
      <maxWeakCount>9</maxWeakCount>
      <stageThreshold>-5.0291508436203003e-01</stageThreshold>
      <weakClassifiers>
        <_>
          <internalNodes>
            0 -1 38 1606677489 -16790529 -709113443 -12597116 277596847
            -1175844469 1502596031 -13898328</internalNodes>
          <leafValues>
            -6.5980392694473267e-01 3.6919832229614258e-01</leafValues></_>
        <_>
          <internalNodes>
            0 -1 36 -45089797 1073730842 -116138499 2111690722
            -638912047 -540518262 -548937513 234879210</internalNodes>
          <leafValues>
            -6.0552233457565308e-01 4.4460561871528625e-01</leafValues></_>
        <_>
          <internalNodes>
            0 -1 54 -35673285 99595447 -2138861129 1692381115 1924004797
            1745387976 295434556 1157353063</internalNodes>
          <leafValues>
            -6.8186897039413452e-01 4.0804001688957214e-01</leafValues></_>
        <_>
          <internalNodes>
            0 -1 31 -1356616771 -138423457 -1827438177 -258011523
            -22283666 -208947006 -108295989 -884674604</internalNodes>
          <leafValues>
            -6.2696641683578491e-01 4.4929385185241699e-01</leafValues></_>
        <_>
          <internalNodes>
            0 -1 13 -68950017 -825435702 -1879035558 -870923921
            -1199119273 1451270163 -88389817 1909704615</internalNodes>
          <leafValues>
            -6.6851097345352173e-01 4.3936046957969666e-01</leafValues></_>
        <_>
          <internalNodes>
            0 -1 34 -1445857314 -1102999512 27627817 -1132374689
            -1947094557 -1415859842 -1926640263 217802666</internalNodes>
          <leafValues>
            -7.0320653915405273e-01 4.0306332707405090e-01</leafValues></_>
        <_>
          <internalNodes>
            0 -1 39 812132855 -1899948015 -783989953 -541753197
            539015611 -1379755896 -1144461132 -39710567</internalNodes>
          <leafValues>
            -6.1737561225891113e-01 4.5314091444015503e-01</leafValues></_>
        <_>
          <internalNodes>
            0 -1 24 -221086220 1595607244 537377742 1895484130 196427376
            1608057304 231708987 -543943822</internalNodes>
          <leafValues>
            -7.1143680810928345e-01 4.0643393993377686e-01</leafValues></_>
        <_>
          <internalNodes>
            0 -1 49 319814274 -213933329 285233218 -544893161
            -1292783607 -1415531902 -1332893014 -827329893</internalNodes>
          <leafValues>
            -5.6200206279754639e-01 5.2085471153259277e-01</leafValues></_></weakClassifiers></_>
    <!-- stage 5 -->
    <_>
      <maxWeakCount>10</maxWeakCount>
      <stageThreshold>-5.9420508146286011e-01</stageThreshold>
      <weakClassifiers>
        <_>
          <internalNodes>
            0 -1 6 1331032322 -649035769 1228931093 462635419 446268047
            1805813983 -1991731064 1698863144</internalNodes>
          <leafValues>
            -8.3084577322006226e-01 4.2729970812797546e-01</leafValues></_>
        <_>
          <internalNodes>
            0 -1 48 -1794558216 -1805578858 -1325399759 -1042329231
            -1593577081 21680130 -214973809 -863246087</internalNodes>
          <leafValues>
            -6.1454278230667114e-01 4.2600008845329285e-01</leafValues></_>
        <_>
          <internalNodes>
            0 -1 52 -201871837 1978118135 -166013 565047202 1457502063
            -1213202948 2130524069 -760750749</internalNodes>
          <leafValues>
            -4.6065029501914978e-01 6.6172057390213013e-01</leafValues></_>
        <_>
          <internalNodes>
            0 -1 44 -1278151664 -82868351 151352147 -49658669
            -1987530728 -654114806 -2013021814 -1599016063</internalNodes>
          <leafValues>
            -7.1218544244766235e-01 4.0305298566818237e-01</leafValues></_>
        <_>
          <internalNodes>
            0 -1 37 1721819391 -645880883 422347343 2020836825
            -920002336 -133283840 1209092315 -1140047786</internalNodes>
          <leafValues>
            -6.3201791048049927e-01 4.5818778872489929e-01</leafValues></_>
        <_>
          <internalNodes>
            0 -1 19 -313605099 -1523707810 318832654 1862795282
            545395210 -1718713983 1753410438 -85121402</internalNodes>
          <leafValues>
            -6.2783271074295044e-01 4.5604228973388672e-01</leafValues></_>
        <_>
          <internalNodes>
            0 -1 23 1276070792 -1743847220 1142259804 -1865345592
            -1030493426 1250115784 -1837061366 -803805049</internalNodes>
          <leafValues>
            -6.4248621463775635e-01 4.9245983362197876e-01</leafValues></_>
        <_>
          <internalNodes>
            0 -1 43 272658876 -1417395747 -1068478126 -1794035695
            -2008344085 -1568210558 -1960785759 -1970796373</internalNodes>
          <leafValues>
            -6.1855769157409668e-01 5.1621526479721069e-01</leafValues></_>
        <_>
          <internalNodes>
            0 -1 11 -587335823 -319521550 -402718731 -1124434093
            -83947236 -32778 -1108312073 -734036361</internalNodes>
          <leafValues>
            -5.3452014923095703e-01 5.8791291713714600e-01</leafValues></_>
        <_>
          <internalNodes>
            0 -1 35 1046663670 1027912727 4358 361955363 -2143174647
            -931000319 -1031712765 -1629714322</internalNodes>
          <leafValues>
            -6.5563035011291504e-01 5.3196924924850464e-01</leafValues></_></weakClassifiers></_>
    <!-- stage 6 -->
    <_>
      <maxWeakCount>8</maxWeakCount>
      <stageThreshold>2.9033815860748291e-01</stageThreshold>
      <weakClassifiers>
        <_>
          <internalNodes>
            0 -1 7 -1073331362 69632 2 1090537728 -2143202357 1757945858
            -2079829813 707999776</internalNodes>
          <leafValues>
            -6.3157892227172852e-01 7.7614676952362061e-01</leafValues></_>
        <_>
          <internalNodes>
            0 -1 12 1877895868 -1074008257 -1073741825 -737353 -1 -11
            -537403905 1331025493</internalNodes>
          <leafValues>
            -5.7827341556549072e-01 6.4798772335052490e-01</leafValues></_>
        <_>
          <internalNodes>
            0 -1 18 1309437831 1327939338 -1494870283 -5767328
            -671103393 1474592534 2112712799 2112616439</internalNodes>
          <leafValues>
            -5.3169548511505127e-01 7.0477402210235596e-01</leafValues></_>
        <_>
          <internalNodes>
            0 -1 42 286296912 285278209 102417 785449025 -1878982626
            235044995 -226448923 -1121943504</internalNodes>
          <leafValues>
            -5.9510529041290283e-01 6.2296611070632935e-01</leafValues></_>
        <_>
          <internalNodes>
            0 -1 33 -1001880545 -1693446014 -2147417085 1073877920
            -1601642471 2030829576 671219715 -1660698468</internalNodes>
          <leafValues>
            -5.3332990407943726e-01 6.8345600366592407e-01</leafValues></_>
        <_>
          <internalNodes>
            0 -1 29 9816790 268722512 537001985 474021905 -1064566653
            -1065123581 -2013265781 -1425948117</internalNodes>
          <leafValues>
            -6.2181675434112549e-01 6.3261348009109497e-01</leafValues></_>
        <_>
          <internalNodes>
            0 -1 16 -1038544873 -268107520 1082165273 1610973248
            1208549498 436207744 -905559895 -74954238</internalNodes>
          <leafValues>
            -6.1203324794769287e-01 6.4880663156509399e-01</leafValues></_>
        <_>
          <internalNodes>
            0 -1 51 1661145600 1343684683 -2013216511 -1021247480
            -1040053887 134879232 -1056724848 -1072988125</internalNodes>
          <leafValues>
            -6.7467296123504639e-01 6.5612637996673584e-01</leafValues></_></weakClassifiers></_></stages>
  <features>
    <_>
      <rect>
        0 1 13 3</rect></_>
    <_>
      <rect>
        0 5 6 4</rect></_>
    <_>
      <rect>
        0 6 5 5</rect></_>
    <_>
      <rect>
        0 6 5 6</rect></_>
    <_>
      <rect>
        0 9 3 7</rect></_>
    <_>
      <rect>
        0 10 10 6</rect></_>
    <_>
      <rect>
        0 13 13 5</rect></_>
    <_>
      <rect>
        0 14 6 6</rect></_>
    <_>
      <rect>
        0 20 3 4</rect></_>
    <_>
      <rect>
        0 20 5 4</rect></_>
    <_>
      <rect>
        0 20 8 4</rect></_>
    <_>
      <rect>
        0 23 2 3</rect></_>
    <_>
      <rect>
        1 0 5 7</rect></_>
    <_>
      <rect>
        1 13 3 2</rect></_>
    <_>
      <rect>
        2 0 10 4</rect></_>
    <_>
      <rect>
        2 6 7 4</rect></_>
    <_>
      <rect>
        2 27 2 1</rect></_>
    <_>
      <rect>
        3 26 3 1</rect></_>
    <_>
      <rect>
        4 0 7 2</rect></_>
    <_>
      <rect>
        4 3 7 2</rect></_>
    <_>
      <rect>
        5 2 12 5</rect></_>
    <_>
      <rect>
        5 3 11 9</rect></_>
    <_>
      <rect>
        5 14 12 6</rect></_>
    <_>
      <rect>
        5 16 5 3</rect></_>
    <_>
      <rect>
        5 18 7 3</rect></_>
    <_>
      <rect>
        6 0 11 3</rect></_>
    <_>
      <rect>
        6 6 10 5</rect></_>
    <_>
      <rect>
        6 19 4 3</rect></_>
    <_>
      <rect>
        6 26 8 2</rect></_>
    <_>
      <rect>
        7 9 8 5</rect></_>
    <_>
      <rect>
        7 25 5 2</rect></_>
    <_>
      <rect>
        8 15 6 3</rect></_>
    <_>
      <rect>
        9 11 8 4</rect></_>
    <_>
      <rect>
        9 18 7 3</rect></_>
    <_>
      <rect>
        10 6 8 3</rect></_>
    <_>
      <rect>
        11 14 7 5</rect></_>
    <_>
      <rect>
        11 22 10 3</rect></_>
    <_>
      <rect>
        12 11 5 4</rect></_>
    <_>
      <rect>
        15 15 4 3</rect></_>
    <_>
      <rect>
        16 27 3 1</rect></_>
    <_>
      <rect>
        17 1 8 9</rect></_>
    <_>
      <rect>
        17 4 1 1</rect></_>
    <_>
      <rect>
        18 13 2 1</rect></_>
    <_>
      <rect>
        18 27 5 1</rect></_>
    <_>
      <rect>
        19 0 7 3</rect></_>
    <_>
      <rect>
        21 23 5 3</rect></_>
    <_>
      <rect>
        23 7 6 6</rect></_>
    <_>
      <rect>
        23 14 6 6</rect></_>
    <_>
      <rect>
        26 16 5 4</rect></_>
    <_>
      <rect>
        28 1 4 5</rect></_>
    <_>
      <rect>
        28 5 4 4</rect></_>
    <_>
      <rect>
        28 16 4 3</rect></_>
    <_>
      <rect>
        29 5 4 5</rect></_>
    <_>
      <rect>
        29 6 4 6</rect></_>
    <_>
      <rect>
        29 10 4 4</rect></_>
    <_>
      <rect>
        32 12 3 4</rect></_></features></cascade>
</opencv_storage>
