<?xml version="1.0"?>
<opencv_storage>
<!-- Created using Computer Vision System Toolbox(tm) for MATLAB(R) -->
<!-- Version 8.3.0.532 (R2014a) -->
<!-- Compatible with OpenCV 2.4 -->
<cascade>
  <stageType>BOOST</stageType>
  <featureType>LBP</featureType>
  <height>50</height>
  <width>32</width>
  <stageParams>
    <boostType>GAB</boostType>
    <minHitRate>9.9500000476837158e-01</minHitRate>
    <maxFalseAlarm>4.0000000596046448e-01</maxFalseAlarm>
    <weightTrimRate>9.4999999999999996e-01</weightTrimRate>
    <maxDepth>1</maxDepth>
    <maxWeakCount>100</maxWeakCount></stageParams>
  <featureParams>
    <maxCatCount>256</maxCatCount>
    <featSize>1</featSize></featureParams>
  <stageNum>7</stageNum>
  <stages>
    <!-- stage 0 -->
    <_>
      <maxWeakCount>2</maxWeakCount>
      <stageThreshold>-1.9132675230503082e-01</stageThreshold>
      <weakClassifiers>
        <_>
          <internalNodes>
            0 -1 2 -2097153 -220725281 -217322529 -69993505 -68158497
            2001002498 -752091153 1912078335</internalNodes>
          <leafValues>
            -9.7011047601699829e-01 7.1200001239776611e-01</leafValues></_>
        <_>
          <internalNodes>
            0 -1 4 -1 -136318125 -1050944510 -136840249 2070639364
            1396917315 -108434672 -134742153</internalNodes>
          <leafValues>
            -8.7860238552093506e-01 7.7878367900848389e-01</leafValues></_></weakClassifiers></_>
    <!-- stage 1 -->
    <_>
      <maxWeakCount>3</maxWeakCount>
      <stageThreshold>-1.0996124744415283e+00</stageThreshold>
      <weakClassifiers>
        <_>
          <internalNodes>
            0 -1 5 -137365649 -145230497 -787878981 -73407297 2004842311
            -15738109 -68157577 -129</internalNodes>
          <leafValues>
            -8.0399060249328613e-01 7.0485436916351318e-01</leafValues></_>
        <_>
          <internalNodes>
            0 -1 10 -41089 -35009 -241437697 -1025 1073550367 2142468383
            1877674879 2147447167</internalNodes>
          <leafValues>
            -8.9089763164520264e-01 5.6600898504257202e-01</leafValues></_>
        <_>
          <internalNodes>
            0 -1 1 -1 -69218049 -70526497 -1426079525 -7340033 -2122785
            -71565381 552991423</internalNodes>
          <leafValues>
            -8.6163085699081421e-01 6.1143678426742554e-01</leafValues></_></weakClassifiers></_>
    <!-- stage 2 -->
    <_>
      <maxWeakCount>3</maxWeakCount>
      <stageThreshold>-9.8526841402053833e-01</stageThreshold>
      <weakClassifiers>
        <_>
          <internalNodes>
            0 -1 13 -17 1467473407 -753952547 -151061537 -8449
            2010118655 -69472257 -134742017</internalNodes>
          <leafValues>
            -8.1058496236801147e-01 5.6213706731796265e-01</leafValues></_>
        <_>
          <internalNodes>
            0 -1 22 -35651585 -1310722145 -2147227042 -2004360705
            -798491139 -1924427189 -190850306 -1996624641</internalNodes>
          <leafValues>
            -7.6478487253189087e-01 5.9685081243515015e-01</leafValues></_>
        <_>
          <internalNodes>
            0 -1 7 -37889 2145385471 -79967009 -134222881 2138534775
            2010607351 -67108993 -1573001</internalNodes>
          <leafValues>
            -7.7153426408767700e-01 6.0840618610382080e-01</leafValues></_></weakClassifiers></_>
    <!-- stage 3 -->
    <_>
      <maxWeakCount>4</maxWeakCount>
      <stageThreshold>-8.2195031642913818e-01</stageThreshold>
      <weakClassifiers>
        <_>
          <internalNodes>
            0 -1 21 -1344274433 805304575 -677396993 937401339
            -369362177 804781967 -1 1006632959</internalNodes>
          <leafValues>
            -8.6092483997344971e-01 3.7169811129570007e-01</leafValues></_>
        <_>
          <internalNodes>
            0 -1 17 -16386 -1264450 -350004738 -285552034 -20972545
            -23078517 -88343569 -989855745</internalNodes>
          <leafValues>
            -9.1359859704971313e-01 4.1351008415222168e-01</leafValues></_>
        <_>
          <internalNodes>
            0 -1 3 -134479874 -642523041 -955842605 -201395202
            1973647136 -87073953 -24678586 -5121</internalNodes>
          <leafValues>
            -7.3038816452026367e-01 5.1159393787384033e-01</leafValues></_>
        <_>
          <internalNodes>
            0 -1 12 -27262982 839053314 -662697953 939511807 -1314817
            1939857983 -374617681 805306223</internalNodes>
          <leafValues>
            -8.7636041641235352e-01 4.5033833384513855e-01</leafValues></_></weakClassifiers></_>
    <!-- stage 4 -->
    <_>
      <maxWeakCount>4</maxWeakCount>
      <stageThreshold>-9.1389960050582886e-01</stageThreshold>
      <weakClassifiers>
        <_>
          <internalNodes>
            0 -1 18 326581599 1071593303 -573440513 530529151 1072639423
            1073707246 -1146405889 2147449599</internalNodes>
          <leafValues>
            -9.1629052162170410e-01 2.3131956160068512e-01</leafValues></_>
        <_>
          <internalNodes>
            0 -1 15 -536873505 -544417854 -649472673 -258681450
            -581964353 -86847518 -70529137 1071622911</internalNodes>
          <leafValues>
            -8.4965699911117554e-01 3.0788239836692810e-01</leafValues></_>
        <_>
          <internalNodes>
            0 -1 8 -11075585 -799107189 -577835141 -1691365301
            1935962928 -75347941 2135375637 -1053953</internalNodes>
          <leafValues>
            -7.7844274044036865e-01 4.0489464998245239e-01</leafValues></_>
        <_>
          <internalNodes>
            0 -1 23 -310509569 -1647987305 -1820199461 -1395926121
            -1488332385 -2129934163 -105120833 -1929396481</internalNodes>
          <leafValues>
            -6.7465883493423462e-01 5.2802139520645142e-01</leafValues></_></weakClassifiers></_>
    <!-- stage 5 -->
    <_>
      <maxWeakCount>4</maxWeakCount>
      <stageThreshold>-9.0547138452529907e-01</stageThreshold>
      <weakClassifiers>
        <_>
          <internalNodes>
            0 -1 0 -36704291 -534579 -544273011 -355841 -611328068
            -1074447 -880078865 930312023</internalNodes>
          <leafValues>
            -8.5247886180877686e-01 1.8770226836204529e-01</leafValues></_>
        <_>
          <internalNodes>
            0 -1 19 89587991 1060897979 -571367969 1067418463 2074041087
            2142970026 -75269377 -1049857</internalNodes>
          <leafValues>
            -7.7065938711166382e-01 3.6075839400291443e-01</leafValues></_>
        <_>
          <internalNodes>
            0 -1 6 1979700479 -145766161 -788020065 -674782769
            1933793151 2050469375 -336626825 -139994249</internalNodes>
          <leafValues>
            -7.9167544841766357e-01 3.6332833766937256e-01</leafValues></_>
        <_>
          <internalNodes>
            0 -1 9 -3198017 2144273219 2031959903 -34082609 -99934609
            -362450176 2126185319 -4762829</internalNodes>
          <leafValues>
            -6.2910252809524536e-01 4.6916115283966064e-01</leafValues></_></weakClassifiers></_>
    <!-- stage 6 -->
    <_>
      <maxWeakCount>6</maxWeakCount>
      <stageThreshold>-9.2186850309371948e-01</stageThreshold>
      <weakClassifiers>
        <_>
          <internalNodes>
            0 -1 14 -13370113 -34369061 -318662657 -6441249 -20710917
            -812885 -73405761 -189401433</internalNodes>
          <leafValues>
            -6.9011521339416504e-01 3.7764349579811096e-01</leafValues></_>
        <_>
          <internalNodes>
            0 -1 24 703270363 -1210075169 -1812073121 -1075973793
            -682886161 -1142695551 -220201489 -1900028161</internalNodes>
          <leafValues>
            -7.1903574466705322e-01 3.4486439824104309e-01</leafValues></_>
        <_>
          <internalNodes>
            0 -1 16 117398270 1115028167 134709707 -220280877 2146395903
            2138039179 1867197007 -151521485</internalNodes>
          <leafValues>
            -7.6861047744750977e-01 3.3826309442520142e-01</leafValues></_>
        <_>
          <internalNodes>
            0 -1 20 -142737468 -1576759094 1900169996 -992944012
            2063832879 -247353021 -677653425 -1060831746</internalNodes>
          <leafValues>
            -7.6505994796752930e-01 3.9219084382057190e-01</leafValues></_>
        <_>
          <internalNodes>
            0 -1 11 -1283458833 -703100694 -2141601315 -791682849
            -331234822 1778877679 -886665854 -13108633</internalNodes>
          <leafValues>
            -5.5948263406753540e-01 5.0496101379394531e-01</leafValues></_>
        <_>
          <internalNodes>
            0 -1 25 -111280129 -212908669 -2130460266 1977538451
            -1157463106 -183548790 70241499 -1028855052</internalNodes>
          <leafValues>
            -5.8225691318511963e-01 4.5209175348281860e-01</leafValues></_></weakClassifiers></_></stages>
  <features>
    <_>
      <rect>
        0 0 7 4</rect></_>
    <_>
      <rect>
        0 0 10 4</rect></_>
    <_>
      <rect>
        0 1 10 12</rect></_>
    <_>
      <rect>
        0 2 4 16</rect></_>
    <_>
      <rect>
        0 4 5 13</rect></_>
    <_>
      <rect>
        0 7 6 12</rect></_>
    <_>
      <rect>
        0 12 7 8</rect></_>
    <_>
      <rect>
        0 15 6 5</rect></_>
    <_>
      <rect>
        0 20 5 10</rect></_>
    <_>
      <rect>
        0 32 4 6</rect></_>
    <_>
      <rect>
        0 38 9 4</rect></_>
    <_>
      <rect>
        1 0 4 8</rect></_>
    <_>
      <rect>
        2 5 10 15</rect></_>
    <_>
      <rect>
        2 13 10 8</rect></_>
    <_>
      <rect>
        6 0 4 2</rect></_>
    <_>
      <rect>
        6 0 7 11</rect></_>
    <_>
      <rect>
        6 12 6 9</rect></_>
    <_>
      <rect>
        8 0 8 7</rect></_>
    <_>
      <rect>
        8 41 8 3</rect></_>
    <_>
      <rect>
        14 44 4 2</rect></_>
    <_>
      <rect>
        17 2 5 16</rect></_>
    <_>
      <rect>
        17 35 5 5</rect></_>
    <_>
      <rect>
        23 23 3 9</rect></_>
    <_>
      <rect>
        23 26 3 8</rect></_>
    <_>
      <rect>
        26 38 2 4</rect></_>
    <_>
      <rect>
        29 11 1 9</rect></_></features></cascade>
</opencv_storage>
